0 7 0.0297816
0 8 0.295387
0 9 0.202357
0 12 0.117849
0 15 0.0590712
0 18 0.118605
0 22 0.118016
0 25 0.0294655
0 39 0.0294671
2 2 1
3 3 0.166667
3 11 0.333333
3 13 0.166667
3 14 0.166667
3 16 0.166667
4 4 0.8
4 17 0.2
5 5 0.875
5 19 0.125
6 6 0.665495
6 20 0.334505
7 7 1
8 8 1
9 9 0.972324
9 23 0.0276757
10 10 0.619051
10 15 0.33333
10 24 0.0476193
11 7 0.198101
11 8 0.000221811
11 12 0.000150455
11 18 0.000553757
11 21 0.200237
11 22 2.54809e-05
11 25 0.60071
12 12 0.947368
12 20 0.052632
13 15 0.941161
13 23 0.0588392
14 22 0.249759
14 24 0.750241
15 18 1
16 17 1
17 19 1
18 26 1
19 27 1
20 28 1
21 29 1
22 20 1
23 20 1
24 2 0.047619
24 4 0.047619
24 5 0.047619
24 6 0.047619
24 7 0.047619
24 8 0.047619
24 9 0.047619
24 10 0.047619
24 12 0.047619
24 15 0.047619
24 17 0.047619
24 18 0.047619
24 19 0.047619
24 20 0.047619
24 24 0.047619
24 25 0.047619
24 26 0.047619
24 27 0.047619
24 28 0.047619
24 29 0.047619
24 30 0.047619
25 30 1
26 31 1
27 32 0.857143
27 61 0.142857
28 33 1
29 34 1
30 18 0.666667
30 35 0.333333
31 36 1
32 37 1
33 38 1
34 13 1
35 14 1
36 23 1
37 40 1
38 41 1
39 42 1
40 43 1
41 44 1
42 45 1
43 46 1
44 47 1
45 48 1
46 22 1
47 49 1
48 50 1
49 51 1
50 52 1
51 25 1.98934e-05
51 53 0.99998
52 23 0.666667
52 54 0.333333
53 49 0.333333
53 55 0.333333
53 56 0.333333
54 57 1
55 58 1
56 2 0.0555556
56 7 0.0555556
56 8 0.0555556
56 9 0.0555556
56 10 0.0555556
56 12 0.0555556
56 15 0.0555556
56 18 0.0555556
56 22 0.0555556
56 23 0.0555556
56 24 0.0555556
56 28 0.0555556
56 29 0.0555556
56 31 0.0555556
56 32 0.0555556
56 57 0.0555556
56 58 0.0555556
56 59 0.0555556
57 59 1
58 60 1
59 22 1
60 62 1
61 22 0.2
61 49 0.2
61 56 0.2
61 63 0.2
61 64 0.2
62 61 1
63 6 1
