1 1 12 100 1
2 2 12 100 1
3 3 12 100 1
4 4 12 100 1
5 5 12 100 1
6 6 12 100 1
7 7 12 100 1
8 8 12 100 1
9 9 12 100 1
0 10 12 100 0.0586833
10 10 12 100 0.941317
11 11 12 100 1
0 12 12 100 0.00512638
12 12 12 100 0.994874
0 13 12 100 1.66913e-05
8 13 12 100 0.999983
0 14 12 100 1
0 15 12 100 1
0 16 12 100 0.0706382
10 16 12 100 0.929362
11 17 12 100 1
9 18 12 100 1
8 19 12 100 1
10 20 12 100 1
0 21 12 100 1
0 22 12 100 0.999941
10 22 12 100 5.90739e-05
11 23 12 100 1
12 24 12 100 1
8 25 12 100 1
9 26 12 100 1
0 27 12 100 1
0 28 12 100 0.0225871
10 28 12 100 0.977413
11 29 12 100 1
12 30 12 100 1
8 31 12 100 1
9 32 12 100 1
0 33 12 100 1
0 34 12 100 0.00669525
10 34 12 100 0.993305
11 35 12 100 1
12 36 12 100 1
0 37 12 100 0.999979
8 37 12 100 2.05989e-05
9 38 12 100 1
0 39 12 100 1
0 40 12 100 0.836106
10 40 12 100 0.163894
0 41 12 100 1
12 42 12 100 1
1 1 13 100 1
2 2 13 100 1
3 3 13 100 1
4 4 13 100 1
5 5 13 100 1
6 6 13 100 1
0 7 13 100 9.54465e-05
7 7 13 100 0.999905
0 8 13 100 0.978203
8 8 13 100 0.0217971
9 9 13 100 1
2 10 13 100 1
3 11 13 100 1
4 12 13 100 1
5 13 13 100 1
0 14 13 100 0.99825
11 14 13 100 0.00175012
2 15 13 100 1
2 16 13 100 1
2 17 13 100 1
3 18 13 100 1
4 19 13 100 1
5 20 13 100 1
0 21 13 100 0.00158097
7 21 13 100 0.998419
0 22 13 100 0.0734427
8 22 13 100 0.926557
0 23 13 100 3.06842e-05
9 23 13 100 0.999969
2 24 13 100 1
0 25 13 100 0.00479801
7 25 13 100 0.995202
3 26 13 100 1
0 27 13 100 1
4 28 13 100 1
5 29 13 100 1
10 30 13 100 1
0 31 13 100 0.999873
10 31 13 100 0.000127254
0 32 13 100 0.00749918
8 32 13 100 0.992501
9 33 13 100 1
0 34 13 100 0.980878
10 34 13 100 0.000751384
11 34 13 100 0.0183709
0 35 13 100 0.999738
10 35 13 100 0.000261673
12 36 13 100 1
0 37 13 100 0.993924
7 37 13 100 0.00507497
10 37 13 100 0.0010015
5 38 13 100 1
0 39 13 100 0.997496
10 39 13 100 0.00250384
0 40 13 100 0.0106645
10 40 13 100 0.989336
0 41 13 100 0.997755
7 41 13 100 0.00213854
10 41 13 100 0.000106244
0 42 13 100 0.0736667
8 42 13 100 0.926333
0 43 13 100 0.775133
8 43 13 100 0.224867
12 44 13 100 1
9 45 13 100 3.76974e-05
13 45 13 100 0.999962
10 46 13 100 1
0 47 13 100 0.0201541
11 47 13 100 0.979846
12 48 13 100 1
9 49 13 100 0.999963
13 49 13 100 3.73826e-05
1 1 18 100 1
2 2 18 100 1
3 3 18 100 1
0 4 18 100 0.000548387
4 4 18 100 0.999452
0 5 18 100 0.000376084
5 5 18 100 0.999624
6 6 18 100 1
0 7 18 100 0.00138479
7 7 18 100 0.998615
0 8 18 100 0.000246253
8 8 18 100 0.999754
0 9 18 100 0.5
9 9 18 100 0.5
0 10 18 100 0.000741163
10 10 18 100 0.999179
12 10 18 100 7.99559e-05
11 11 18 100 1
0 12 18 100 0.499871
12 12 18 100 0.499625
14 12 18 100 0.000503577
0 13 18 100 0.0939853
7 13 18 100 0.406115
13 13 18 100 0.4999
0 14 18 100 0.000218282
10 14 18 100 0.499689
12 14 18 100 9.30833e-05
14 14 18 100 0.5
0 15 18 100 0.000519397
13 15 18 100 0.5
15 15 18 100 0.499481
0 16 18 100 0.000828436
14 16 18 100 0.499548
16 16 18 100 0.499624
0 17 18 100 0.0215628
7 17 18 100 0.478328
16 17 18 100 0.000211281
17 17 18 100 0.499898
0 18 18 100 3.42138e-05
8 18 18 100 0.499966
18 18 18 100 0.5
9 19 18 100 1
0 20 18 100 0.000246312
10 20 18 100 0.99897
12 20 18 100 0.000784074
11 21 18 100 1
10 22 18 100 0.000830004
12 22 18 100 0.99917
13 23 18 100 1
0 24 18 100 0.000156768
14 24 18 100 0.999843
0 25 18 100 1.09552e-05
15 25 18 100 0.999989
0 26 18 100 0.416423
7 26 18 100 0.235163
16 26 18 100 0.348414
8 27 18 100 1
0 28 18 100 1
0 29 18 100 0.000277019
10 29 18 100 0.0003277
12 29 18 100 0.999395
11 30 18 100 1
0 31 18 100 0.000892882
14 31 18 100 0.999107
0 32 18 100 0.945003
7 32 18 100 0.0537292
16 32 18 100 0.00126742
0 33 18 100 0.00554393
10 33 18 100 0.00015261
12 33 18 100 0.994303
13 34 18 100 1
0 35 18 100 0.998922
14 35 18 100 0.00107785
0 36 18 100 0.350765
7 36 18 100 0.000491867
16 36 18 100 0.648743
17 37 18 100 1
18 38 18 100 1
1 1 19 100 1
2 2 19 100 1
3 3 19 100 1
0 4 19 100 0.00107662
4 4 19 100 0.998923
5 5 19 100 1
6 6 19 100 1
0 7 19 100 0.000779559
7 7 19 100 0.99922
8 8 19 100 1
9 9 19 100 1
0 10 19 100 0.00107662
10 10 19 100 0.998923
11 11 19 100 1
0 12 19 100 0.00107662
12 12 19 100 0.998923
13 13 19 100 1
0 14 19 100 0.000779561
14 14 19 100 0.99922
0 15 19 100 0.000779561
15 15 19 100 0.99922
16 16 19 100 1
17 17 19 100 1
0 18 19 100 0.000211627
18 18 19 100 0.999788
19 19 19 100 1
1 1 25 100 1
2 2 25 100 1
3 3 25 100 1
0 4 25 100 0.000589485
4 4 25 100 0.999411
5 5 25 100 1
0 6 25 100 0.000279483
6 6 25 100 0.999721
7 7 25 100 1
8 8 25 100 1
0 9 25 100 0.000426833
9 9 25 100 0.999573
10 10 25 100 1
11 11 25 100 1
0 12 25 100 0.000279483
12 12 25 100 0.999721
13 13 25 100 1
0 14 25 100 0.000589485
14 14 25 100 0.999411
15 15 25 100 1
0 16 25 100 0.000426833
16 16 25 100 0.999573
0 17 25 100 0.00234145
17 17 25 100 0.997659
0 18 25 100 0.99994
18 18 25 100 5.96814e-05
18 19 25 100 1
0 20 25 100 0.000279483
19 20 25 100 0.999721
20 21 25 100 1
0 22 25 100 0.000589485
21 22 25 100 0.999411
22 23 25 100 1
0 24 25 100 0.000426833
23 24 25 100 0.999573
0 25 25 100 0.000115872
24 25 25 100 0.999884
25 26 25 100 1
1 1 28 100 1
2 2 28 100 1
3 3 28 100 1
4 4 28 100 1
0 5 28 100 0.00126272
5 5 28 100 0.998737
6 6 28 100 1
7 7 28 100 1
8 8 28 100 1
9 9 28 100 1
10 10 28 100 1
0 11 28 100 0.000914306
11 11 28 100 0.999086
12 12 28 100 1
13 13 28 100 1
0 14 28 100 0.000598672
14 14 28 100 0.999401
15 15 28 100 1
0 16 28 100 0.00126272
16 16 28 100 0.998737
17 17 28 100 1
18 18 28 100 1
19 19 28 100 1
24 20 28 100 1
25 21 28 100 1
0 22 28 100 0.000914306
26 22 28 100 0.999086
0 23 28 100 0.000248207
27 23 28 100 0.999752
28 24 28 100 1
1 1 42 100 1
2 2 42 100 1
3 3 42 100 1
4 4 42 100 1
0 5 42 100 0.00017151
5 5 42 100 0.999829
6 6 42 100 1
7 7 42 100 1
8 8 42 100 1
9 9 42 100 1
0 10 42 100 0.000126146
10 10 42 100 0.999874
11 11 42 100 1
12 12 42 100 1
13 13 42 100 1
14 14 42 100 1
0 15 42 100 1.63135e-05
15 15 42 100 0.999984
16 16 42 100 1
17 17 42 100 1
18 18 42 100 1
0 19 42 100 0.000257606
19 19 42 100 0.999742
0 20 42 100 0.000126123
20 20 42 100 0.999874
0 21 42 100 3.93355e-05
21 21 42 100 0.999961
0 22 42 100 6.11503e-05
22 22 42 100 0.999939
0 23 42 100 7.80024e-05
23 23 42 100 0.999922
24 24 42 100 1
0 25 42 100 0.000179989
25 25 42 100 0.99982
0 26 42 100 0.000138756
26 26 42 100 0.999861
0 27 42 100 5.19684e-05
27 27 42 100 0.999948
0 28 42 100 3.89294e-05
28 28 42 100 0.999961
0 29 42 100 1.23841e-05
29 29 42 100 0.999988
0 30 42 100 1
0 31 42 100 0.999818
19 31 42 100 9.3187e-05
25 31 42 100 1.6042e-05
31 31 42 100 1.96337e-05
38 31 42 100 5.31621e-05
0 32 42 100 0.999826
22 32 42 100 5.94664e-05
28 32 42 100 2.12156e-05
35 32 42 100 9.31051e-05
0 33 42 100 0.00912002
29 33 42 100 0.966664
36 33 42 100 0.0242164
0 34 42 100 1
0 35 42 100 0.999961
26 35 42 100 2.05688e-05
40 35 42 100 1.85599e-05
0 36 42 100 0.999958
27 36 42 100 2.29867e-05
41 36 42 100 1.85611e-05
0 37 42 100 0.999973
28 37 42 100 2.72353e-05
0 38 42 100 0.00376382
29 38 42 100 0.996236
30 39 42 100 1
0 40 42 100 0.000184151
31 40 42 100 0.999816
32 41 42 100 1
0 42 42 100 0.000126183
33 42 42 100 0.999874
0 43 42 100 3.93949e-05
34 43 42 100 0.999961
0 44 42 100 0.000101316
35 44 42 100 0.999899
0 45 42 100 7.80024e-05
29 45 42 100 0.0242444
36 45 42 100 0.975678
37 46 42 100 1
0 47 42 100 0.000217683
38 47 42 100 0.999782
39 48 42 100 1
0 49 42 100 0.000137686
40 49 42 100 0.999862
0 50 42 100 5.08984e-05
41 50 42 100 0.999949
42 51 42 100 1
1 1 43 100 1
2 2 43 100 1
0 3 43 100 0.000740816
3 3 43 100 0.999259
4 4 43 100 1
5 5 43 100 1
6 6 43 100 1
0 7 43 100 0.000740816
7 7 43 100 0.999259
8 8 43 100 1
9 9 43 100 1
10 10 43 100 1
0 11 43 100 0.00156253
11 11 43 100 0.998437
12 12 43 100 1
0 13 43 100 0.000740816
13 13 43 100 0.999259
14 14 43 100 1
0 15 43 100 1.11796e-05
15 15 43 100 0.999989
16 16 43 100 1
17 17 43 100 1
18 18 43 100 0.986757
20 18 43 100 0.00268117
25 18 43 100 0.0105619
0 19 43 100 0.00113139
27 19 43 100 0.998869
28 20 43 100 1
29 21 43 100 1
30 22 43 100 1
0 23 43 100 0.00156253
31 23 43 100 0.998437
0 24 43 100 1.11796e-05
32 24 43 100 0.999989
0 25 43 100 0.000740816
33 25 43 100 0.999259
34 26 43 100 1
0 27 43 100 0.00156253
35 27 43 100 0.998437
0 28 43 100 0.00113139
36 28 43 100 0.998869
37 29 43 100 1
38 30 43 100 1
0 31 43 100 0.00113139
41 31 43 100 0.998869
0 32 43 100 0.00030714
42 32 43 100 0.999693
43 33 43 100 1
1 1 45 100 1
2 2 45 100 1
3 3 45 100 1
0 4 45 100 0.0020002
4 4 45 100 0.998
5 5 45 100 1
0 6 45 100 1.4311e-05
6 6 45 100 0.999986
7 7 45 100 1
8 8 45 100 1
9 9 45 100 1
10 10 45 100 1
11 11 45 100 1
12 12 45 100 1
0 13 45 100 0.0014483
13 13 45 100 0.998552
14 14 45 100 1
15 15 45 100 1
0 16 45 100 0.0020002
16 16 45 100 0.998
0 17 45 100 1.4311e-05
17 17 45 100 0.999986
18 18 45 100 1
19 19 45 100 1
0 20 45 100 0.0014483
20 20 45 100 0.998552
21 21 45 100 1
22 22 45 100 1
0 23 45 100 0.00094832
23 23 45 100 0.999052
24 24 45 100 1
0 25 45 100 0.0020002
25 25 45 100 0.998
26 26 45 100 1
0 27 45 100 0.00094832
27 27 45 100 0.999052
28 28 45 100 1
0 29 45 100 0.0020002
29 29 45 100 0.998
30 30 45 100 1
0 31 45 100 0.0014483
31 31 45 100 0.998552
0 32 45 100 0.0014483
32 32 45 100 0.998552
0 33 45 100 0.00039317
33 33 45 100 0.999607
34 34 45 100 1
35 35 45 100 1
36 36 45 100 1
37 37 45 100 1
0 38 45 100 0.00094832
38 38 45 100 0.999052
39 39 45 100 1
0 40 45 100 0.0020002
40 40 45 100 0.998
41 41 45 100 1
0 42 45 100 0.0014483
42 42 45 100 0.998552
0 43 45 100 0.00039317
43 43 45 100 0.999607
44 44 45 100 0.999957
45 44 45 100 4.26533e-05
44 45 45 100 4.26533e-05
45 45 45 100 0.999957
