4 0 100 18 0.165577
5 0 100 18 0.119891
8 0 100 18 0.0785024
10 0 100 18 0.165577
12 0 100 18 0.119891
13 0 100 18 0.0325468
15 0 100 18 0.165577
16 0 100 18 0.119891
17 0 100 18 0.0325468
1 1 100 18 1
2 2 100 18 1
3 3 100 18 1
4 4 100 18 1
5 5 100 18 1
6 6 100 18 1
7 7 100 18 1
8 8 100 18 1
9 9 100 18 1
10 10 100 18 1
11 11 100 18 1
12 12 100 18 1
13 13 100 18 1
14 14 100 18 1
15 15 100 18 1
16 16 100 18 1
17 17 100 18 1
18 18 100 18 1
4 0 100 19 0.186261
7 0 100 19 0.134868
10 0 100 19 0.186261
12 0 100 19 0.186261
14 0 100 19 0.134868
15 0 100 19 0.134868
18 0 100 19 0.0366126
1 1 100 19 1
2 2 100 19 1
3 3 100 19 1
4 4 100 19 1
5 5 100 19 1
6 6 100 19 1
7 7 100 19 1
8 8 100 19 1
9 9 100 19 1
10 10 100 19 1
11 11 100 19 1
12 12 100 19 1
13 13 100 19 1
14 14 100 19 1
15 15 100 19 1
16 16 100 19 1
17 17 100 19 1
18 18 100 19 1
19 19 100 19 1
5 0 100 24 0.242787
11 0 100 24 0.175797
14 0 100 24 0.115109
16 0 100 24 0.242787
22 0 100 24 0.175797
23 0 100 24 0.0477236
1 1 100 24 1
2 2 100 24 1
3 3 100 24 1
4 4 100 24 1
5 5 100 24 1
6 6 100 24 1
7 7 100 24 1
8 8 100 24 1
9 9 100 24 1
10 10 100 24 1
11 11 100 24 1
12 12 100 24 1
13 13 100 24 1
14 14 100 24 1
15 15 100 24 1
16 16 100 24 1
17 17 100 24 1
18 18 100 24 1
19 19 100 24 1
14 20 100 24 1
20 21 100 24 1
5 22 100 24 0.153882
16 22 100 24 0.846118
11 23 100 24 0.113605
22 23 100 24 0.886395
20 24 100 24 1
21 25 100 24 1
5 26 100 24 4.11377e-06
10 26 100 24 1.21422e-06
11 26 100 24 1.94894e-05
12 26 100 24 5.07014e-06
13 26 100 24 1.52974e-06
14 26 100 24 1.54802e-06
15 26 100 24 4.18873e-06
16 26 100 24 1.0083e-05
19 26 100 24 0.000176712
22 26 100 24 0.999477
23 26 100 24 0.000283242
24 26 100 24 1.54132e-05
5 27 100 24 1.79986e-06
10 27 100 24 2.69999e-06
11 27 100 24 6.7185e-06
12 27 100 24 1.11397e-06
14 27 100 24 1.24045e-06
15 27 100 24 2.9464e-06
16 27 100 24 3.88929e-06
19 27 100 24 0.000316202
22 27 100 24 0.000515004
23 27 100 24 0.999144
24 27 100 24 3.91645e-06
5 28 100 24 1.58729e-06
11 28 100 24 5.80134e-06
12 28 100 24 1.79146e-06
13 28 100 24 5.04335e-06
14 28 100 24 1.7967e-06
15 28 100 24 2.67737e-06
16 28 100 24 4.68406e-06
19 28 100 24 9.9296e-06
22 28 100 24 0.000375395
23 28 100 24 0.00107559
24 28 100 24 0.998516
4 0 100 26 0.000585803
6 0 100 26 0.000277737
9 0 100 26 0.000424167
12 0 100 26 0.000277737
14 0 100 26 0.000585803
16 0 100 26 0.000424167
17 0 100 26 0.00232682
18 0 100 26 0.993695
20 0 100 26 0.000277737
22 0 100 26 0.000585803
24 0 100 26 0.000424167
25 0 100 26 0.000115149
1 1 100 26 1
2 2 100 26 1
3 3 100 26 1
4 4 100 26 1
5 5 100 26 1
6 6 100 26 1
7 7 100 26 1
8 8 100 26 1
9 9 100 26 1
10 10 100 26 1
11 11 100 26 1
12 12 100 26 1
13 13 100 26 1
14 14 100 26 1
15 15 100 26 1
16 16 100 26 1
17 17 100 26 1
18 18 100 26 5.96778e-05
19 18 100 26 0.99994
20 19 100 26 1
21 20 100 26 1
22 21 100 26 1
23 22 100 26 1
24 23 100 26 1
25 24 100 26 1
26 25 100 26 1
3 0 100 33 0.0651294
7 0 100 33 0.0651294
11 0 100 33 0.137371
13 0 100 33 0.0651294
15 0 100 33 0.000982863
19 0 100 33 0.0994672
23 0 100 33 0.137371
24 0 100 33 0.000982863
25 0 100 33 0.0651294
27 0 100 33 0.137371
28 0 100 33 0.0994672
31 0 100 33 0.0994672
32 0 100 33 0.0270024
1 1 100 33 1
2 2 100 33 1
3 3 100 33 1
4 4 100 33 1
5 5 100 33 1
6 6 100 33 1
7 7 100 33 1
8 8 100 33 1
9 9 100 33 1
10 10 100 33 1
11 11 100 33 1
12 12 100 33 1
13 13 100 33 1
14 14 100 33 1
15 15 100 33 1
16 16 100 33 1
17 17 100 33 1
18 18 100 33 1
16 19 100 33 0.962304
29 19 100 33 0.0376962
18 20 100 33 1
5 21 100 33 1
17 22 100 33 1
16 23 100 33 0.854478
29 23 100 33 0.145522
17 24 100 33 1
18 25 100 33 1
18 26 100 33 1
19 27 100 33 1
20 28 100 33 1
21 29 100 33 1
22 30 100 33 1
23 31 100 33 1
24 32 100 33 1
25 33 100 33 1
26 34 100 33 1
11 35 100 33 2.98547e-06
19 35 100 33 0.000113166
20 35 100 33 2.99961e-06
22 35 100 33 1.63958e-06
23 35 100 33 6.80889e-05
24 35 100 33 5.03315e-06
25 35 100 33 1.05896e-05
27 35 100 33 0.999489
28 35 100 33 0.000169869
31 35 100 33 0.000134804
32 35 100 33 1.97341e-06
19 36 100 33 0.00028528
20 36 100 33 3.36179e-06
23 36 100 33 9.45237e-06
24 36 100 33 4.44688e-06
25 36 100 33 4.83211e-06
27 36 100 33 0.000152464
28 36 100 33 0.999032
31 36 100 33 0.000501515
32 36 100 33 4.74388e-06
33 36 100 33 1.4875e-06
16 37 100 33 3.39999e-06
18 37 100 33 3.19579e-06
19 37 100 33 2.26779e-06
28 37 100 33 4.63212e-06
29 37 100 33 0.999951
30 37 100 33 2.65851e-05
31 37 100 33 8.73313e-06
18 38 100 33 0.000216818
19 38 100 33 2.23589e-06
28 38 100 33 1.62891e-06
29 38 100 33 2.11423e-05
30 38 100 33 0.999741
31 38 100 33 1.68891e-05
16 39 100 33 0.0174903
18 39 100 33 4.15159e-05
19 39 100 33 3.01102e-05
29 39 100 33 0.977105
30 39 100 33 0.00205433
31 39 100 33 0.00327892
18 40 100 33 0.00674736
19 40 100 33 0.00017945
21 40 100 33 0.000143284
26 40 100 33 0.000325697
28 40 100 33 6.59731e-05
30 40 100 33 0.984439
31 40 100 33 0.00809899
19 41 100 33 0.000182572
20 41 100 33 1.26331e-06
23 41 100 33 2.65749e-06
27 41 100 33 8.29302e-06
28 41 100 33 3.7058e-05
31 41 100 33 0.999633
32 41 100 33 0.000130144
33 41 100 33 5.1552e-06
19 42 100 33 6.68279e-05
23 42 100 33 1.06906e-06
24 42 100 33 1.66447e-06
27 42 100 33 3.842e-06
28 42 100 33 1.22583e-05
31 42 100 33 0.000862268
32 42 100 33 0.99905
33 42 100 33 1.58015e-06
19 43 100 33 6.45698e-05
23 43 100 33 1.38284e-06
25 43 100 33 1.3899e-06
27 43 100 33 4.52939e-06
28 43 100 33 2.20054e-05
30 43 100 33 4.72842e-06
31 43 100 33 0.00110496
32 43 100 33 0.000488933
33 43 100 33 0.998308
4 0 100 38 9.74016e-06
7 0 100 38 0.000465272
9 0 100 38 0.167994
10 0 100 38 7.45108e-05
12 0 100 38 0.167824
13 0 100 38 0.0315435
14 0 100 38 7.33403e-05
16 0 100 38 0.000151985
17 0 100 38 0.00721053
18 0 100 38 1.14954e-05
20 0 100 38 4.13789e-05
24 0 100 38 2.6336e-05
25 0 100 38 1.84041e-06
26 0 100 38 0.0699565
28 0 100 38 0.167994
29 0 100 38 4.65375e-05
31 0 100 38 0.000149999
32 0 100 38 0.158755
33 0 100 38 0.000931347
35 0 100 38 0.167812
36 0 100 38 0.0589264
1 1 100 38 1
2 2 100 38 1
3 3 100 38 1
4 4 100 38 1
5 5 100 38 1
6 6 100 38 1
7 7 100 38 0.326372
13 7 100 38 0.265825
17 7 100 38 0.313093
26 7 100 38 0.076964
32 7 100 38 0.0175844
36 7 100 38 0.000160978
8 8 100 38 0.333341
18 8 100 38 0.333319
27 8 100 38 0.33334
19 9 100 38 1
10 10 100 38 0.333237
14 10 100 38 0.333231
20 10 100 38 0.333095
22 10 100 38 0.000276754
29 10 100 38 0.000109268
33 10 100 38 5.08859e-05
11 11 100 38 0.333333
21 11 100 38 0.333333
30 11 100 38 0.333333
10 12 100 38 5.34108e-05
14 12 100 38 6.218e-05
20 12 100 38 0.000261882
22 12 100 38 0.333724
29 12 100 38 0.3338
33 12 100 38 0.332099
15 13 100 38 0.333333
23 13 100 38 0.333333
34 13 100 38 0.333333
12 14 100 38 0.000335703
16 14 100 38 0.333017
24 14 100 38 0.333267
31 14 100 38 0.333021
35 14 100 38 0.000359266
25 15 100 38 1
17 16 100 38 0.000423051
26 16 100 38 0.348816
32 16 100 38 0.00126888
36 16 100 38 0.649492
37 17 100 38 1
38 18 100 38 1
10 0 100 42 0.00586847
12 0 100 42 0.000512649
13 0 100 42 1.66917e-06
14 0 100 42 0.100002
15 0 100 42 0.100002
16 0 100 42 0.00706398
21 0 100 42 0.100002
22 0 100 42 0.0999964
27 0 100 42 0.100002
28 0 100 42 0.00225876
33 0 100 42 0.100002
34 0 100 42 0.000669541
37 0 100 42 0.1
39 0 100 42 0.100002
40 0 100 42 0.0836126
41 0 100 42 0.100002
1 1 100 42 1
2 2 100 42 1
3 3 100 42 1
4 4 100 42 1
5 5 100 42 1
6 6 100 42 1
7 7 100 42 1
8 8 100 42 0.2
13 8 100 42 0.199997
19 8 100 42 0.2
25 8 100 42 0.2
31 8 100 42 0.2
37 8 100 42 4.11979e-06
9 9 100 42 0.2
18 9 100 42 0.2
26 9 100 42 0.2
32 9 100 42 0.2
38 9 100 42 0.2
10 10 100 42 0.188062
16 10 100 42 0.185674
20 10 100 42 0.199786
22 10 100 42 1.18022e-05
28 10 100 42 0.195274
34 10 100 42 0.198449
40 10 100 42 0.0327437
11 11 100 42 0.2
17 11 100 42 0.2
23 11 100 42 0.2
29 11 100 42 0.2
35 11 100 42 0.199999
12 12 100 42 0.199179
24 12 100 42 0.200205
30 12 100 42 0.200205
36 12 100 42 0.200205
42 12 100 42 0.200206
4 0 100 45 0.0956922
6 0 100 45 0.00068466
13 0 100 45 0.0692886
16 0 100 45 0.0956922
17 0 100 45 0.00068466
20 0 100 45 0.0692886
23 0 100 45 0.045369
25 0 100 45 0.0956922
27 0 100 45 0.045369
29 0 100 45 0.0956922
31 0 100 45 0.0692886
32 0 100 45 0.0692886
33 0 100 45 0.0188098
38 0 100 45 0.045369
40 0 100 45 0.0956922
42 0 100 45 0.0692886
43 0 100 45 0.0188098
1 1 100 45 1
2 2 100 45 1
3 3 100 45 1
4 4 100 45 1
5 5 100 45 1
6 6 100 45 1
7 7 100 45 1
8 8 100 45 1
9 9 100 45 1
10 10 100 45 1
11 11 100 45 1
12 12 100 45 1
13 13 100 45 1
14 14 100 45 1
15 15 100 45 1
16 16 100 45 1
17 17 100 45 1
18 18 100 45 1
19 19 100 45 1
20 20 100 45 1
21 21 100 45 1
22 22 100 45 1
23 23 100 45 1
24 24 100 45 1
25 25 100 45 1
26 26 100 45 1
27 27 100 45 1
28 28 100 45 1
29 29 100 45 1
30 30 100 45 1
31 31 100 45 1
32 32 100 45 1
33 33 100 45 1
34 34 100 45 1
35 35 100 45 1
36 36 100 45 1
37 37 100 45 1
38 38 100 45 1
39 39 100 45 1
40 40 100 45 1
41 41 100 45 1
42 42 100 45 1
43 43 100 45 1
44 44 100 45 0.999957
45 44 100 45 4.26533e-05
44 45 100 45 4.26533e-05
45 45 100 45 0.999957
7 0 100 49 9.62825e-06
8 0 100 49 0.0986771
14 0 100 49 0.100698
21 0 100 49 0.000159481
22 0 100 49 0.0074086
23 0 100 49 3.0953e-06
25 0 100 49 0.000484003
27 0 100 49 0.100876
31 0 100 49 0.100863
32 0 100 49 0.000756487
34 0 100 49 0.0989469
35 0 100 49 0.100849
37 0 100 49 0.100263
39 0 100 49 0.100623
40 0 100 49 0.00107579
41 0 100 49 0.100649
42 0 100 49 0.00743119
43 0 100 49 0.0781922
47 0 100 49 0.00203306
1 1 100 49 1
2 2 100 49 0.166667
10 2 100 49 0.166667
15 2 100 49 0.166667
16 2 100 49 0.166667
17 2 100 49 0.166667
24 2 100 49 0.166667
3 3 100 49 0.25
11 3 100 49 0.25
18 3 100 49 0.25
26 3 100 49 0.25
4 4 100 49 0.25
12 4 100 49 0.25
19 4 100 49 0.25
28 4 100 49 0.25
5 5 100 49 0.2
13 5 100 49 0.2
20 5 100 49 0.2
29 5 100 49 0.2
38 5 100 49 0.2
6 6 100 49 1
7 7 100 49 0.333219
21 7 100 49 0.332724
25 7 100 49 0.331652
37 7 100 49 0.00169124
41 7 100 49 0.000712671
8 8 100 49 0.00704938
22 8 100 49 0.299657
32 8 100 49 0.320984
42 8 100 49 0.299585
43 8 100 49 0.0727241
9 9 100 49 0.250002
23 9 100 49 0.249994
33 9 100 49 0.250002
45 9 100 49 9.42443e-06
49 9 100 49 0.249993
30 10 100 49 0.333992
31 10 100 49 4.25017e-05
34 10 100 49 0.000250956
35 10 100 49 8.73967e-05
37 10 100 49 0.000334493
39 10 100 49 0.00083626
40 10 100 49 0.33043
41 10 100 49 3.54846e-05
46 10 100 49 0.333992
14 11 100 49 0.00175017
34 11 100 49 0.0183715
47 11 100 49 0.979878
36 12 100 49 0.333333
44 12 100 49 0.333335
48 12 100 49 0.333332
45 13 100 49 0.999963
49 13 100 49 3.73826e-05
5 0 100 51 2.44506e-05
10 0 100 51 1.79835e-05
15 0 100 51 2.32566e-06
19 0 100 51 3.67244e-05
20 0 100 51 1.79802e-05
21 0 100 51 5.60768e-06
22 0 100 51 8.71761e-06
23 0 100 51 1.112e-05
25 0 100 51 2.56593e-05
26 0 100 51 1.97811e-05
27 0 100 51 7.40864e-06
28 0 100 51 5.54979e-06
29 0 100 51 1.76547e-06
30 0 100 51 0.142559
31 0 100 51 0.142533
32 0 100 51 0.142534
33 0 100 51 0.00130015
34 0 100 51 0.14256
35 0 100 51 0.142552
36 0 100 51 0.142552
37 0 100 51 0.142553
38 0 100 51 0.000536571
40 0 100 51 2.62527e-05
42 0 100 51 1.79886e-05
43 0 100 51 5.61616e-06
44 0 100 51 1.44437e-05
45 0 100 51 1.112e-05
47 0 100 51 3.1033e-05
49 0 100 51 1.96286e-05
50 0 100 51 7.25609e-06
1 1 100 51 1
2 2 100 51 1
3 3 100 51 1
4 4 100 51 1
5 5 100 51 1
6 6 100 51 1
7 7 100 51 1
8 8 100 51 1
9 9 100 51 1
10 10 100 51 1
11 11 100 51 1
12 12 100 51 1
13 13 100 51 1
14 14 100 51 1
15 15 100 51 1
16 16 100 51 1
17 17 100 51 1
18 18 100 51 1
19 19 100 51 0.999907
31 19 100 51 9.32017e-05
20 20 100 51 1
21 21 100 51 1
22 22 100 51 0.999941
32 22 100 51 5.9466e-05
23 23 100 51 1
24 24 100 51 1
25 25 100 51 0.999984
31 25 100 51 1.60445e-05
26 26 100 51 0.999979
35 26 100 51 2.05708e-05
27 27 100 51 0.999977
36 27 100 51 2.29871e-05
28 28 100 51 0.999952
32 28 100 51 2.12152e-05
37 28 100 51 2.72345e-05
29 29 100 51 0.334765
33 29 100 51 0.323609
38 29 100 51 0.333509
45 29 100 51 0.00811629
39 30 100 51 1
31 31 100 51 1.96368e-05
40 31 100 51 0.99998
41 32 100 51 1
42 33 100 51 1
43 34 100 51 1
32 35 100 51 9.31051e-05
44 35 100 51 0.999907
33 36 100 51 0.024219
45 36 100 51 0.975781
46 37 100 51 1
31 38 100 51 5.31705e-05
47 38 100 51 0.999947
48 39 100 51 1
35 40 100 51 1.85617e-05
49 40 100 51 0.999981
36 41 100 51 1.85615e-05
50 41 100 51 0.999981
51 42 100 51 1
