2 0 0.874755 0.000246487 0.124998 0 0 0 0 0 0 
3 0 0 0 0 0 0 0.999999 0 0 0 
4 0.0702337 0.798015 0.000145162 0.0607455 0.0295942 0.04123 3.6759e-05 0 0 0 
5 0 0.919254 0 0 0.0807454 0 0 0 0 0 
6 0.0700761 0.798172 0.000145162 0.0607455 0.0146688 0.0561553 3.6759e-05 0 0 0 
7 0 1 0 0 0 0 0 0 0 0 
8 0.0508802 0.843449 0.000105727 0.0652566 0.0105784 0.0297033 2.64823e-05 0 0 0 
9 0.0508147 0.832762 0.000114293 0.0637713 0.0119469 0.040507 8.39812e-05 0 0 0 
10 0.0487587 0.808776 0.000128918 0.0667093 0.0260892 0.0495053 3.2406e-05 0 0 0 
11 0 0.848614 0.00035667 0.151029 0 0 0 0 0 0 
12 0.00025363 0.999745 1.7379e-06 0 0 0 0 0 0 0 
13 0.0469648 0.841296 0.000123305 0.0641764 0.0124406 0.0349672 3.11754e-05 0 0 0 
14 0.0487587 0.835092 0.000128016 0.0535519 0.0129993 0.0494378 3.2406e-05 0 0 0 
15 0.0574827 0.810476 0.000362767 0.0859722 0.0119881 0.0336879 3.00348e-05 0 0 0 
16 0 0.930736 0 0 0.0692641 0 0 0 0 0 
17 0 0.930736 0 0 0.0692641 0 0 0 0 0 
18 0 0.92967 0 0 0.0703297 0 0 0 0 0 
19 0 0.92967 0 0 0.0703297 0 0 0 0 0 
20 0.090617 0.803608 0.00013143 0.0549993 0.0132812 0.0373298 3.32818e-05 0 0 0 
21 0.222222 0.777778 0 0 0 0 0 0 0 0 
22 0.000509656 0.999489 1.86492e-06 0 0 0 0 0 0 0 
23 0.506331 0.493668 0 0 0 0 0 0 0 0 
24 1 0 0 0 0 0 0 0 0 0 
25 0 0.999999 0 0 0 0 0 0 0 0 
26 0 0.863539 0.00026856 0.136192 0 0 0 0 0 0 
27 0.000294421 0.999704 1.75985e-06 0 0 0 0 0 0 0 
28 0.000316726 0.999681 1.89317e-06 0 0 0 0 0 0 0 
29 0.0561463 0.825257 0.000147361 0.0616659 0.0148911 0.0418547 3.7316e-05 0 0 0 
30 0.0561463 0.810106 0.000147361 0.0616659 0.0148911 0.0570062 3.7316e-05 0 0 0 
31 0.000321599 0.999677 1.9223e-06 0 0 0 0 0 0 0 
32 0 0.859341 0.000276823 0.140383 0 0 0 0 0 0 
33 0 0.999999 0 0 0 0 0 0 0 0 
34 0.0570101 0.822569 0.000149628 0.0626146 0.0151202 0.0424986 3.78901e-05 0 0 0 
35 0 0.999999 0 0 0 0 0 0 0 0 
36 0 1 0 0 0 0 0 0 0 0 
37 0.000321599 0.999677 1.9223e-06 0 0 0 0 0 0 0 
38 0.000321599 0.999677 1.9223e-06 0 0 0 0 0 0 0 
39 0 1 0 0 0 0 0 0 0 0 
40 0 0.999999 0 0 0 0 0 0 0 0 
41 0.000321599 0.999677 1.9223e-06 0 0 0 0 0 0 0 
42 0.000316726 0.999681 1.89317e-06 0 0 0 0 0 0 0 
43 0 0.999999 0 0 0 0 0 0 0 0 
44 0 0.999999 0 0 0 0 0 0 0 0 
45 0.0561463 0.825257 0.000147361 0.0616659 0.0148911 0.0418547 3.7316e-05 0 0 0 
46 0 0.863539 0.00026856 0.136192 0 0 0 0 0 0 
47 0 1 0 0 0 0 0 0 0 0 
48 0.000321599 0.999677 1.9223e-06 0 0 0 0 0 0 0 
49 0 0.92967 0 0 0.0703297 0 0 0 0 0 
50 0.490987 0.509012 0 0 0 0 0 0 0 0 
51 0.000311999 0.999685 2.75425e-06 0 0 0 0 0 0 0 
52 0 0.843956 0.000276823 0.155767 0 0 0 0 0 0 
53 0 0.843956 0.000276823 0.155767 0 0 0 0 0 0 
54 0 0.999999 0 0 0 0 0 0 0 0 
55 0 1 0 0 0 0 0 0 0 0 
56 0.999999 0 0 0 0 0 0 0 0 0 
57 0 0.92967 0 0 0.0703297 0 0 0 0 0 
58 0 1 0 0 0 0 0 0 0 0 
59 0 0.92967 0 0 0.0703297 0 0 0 0 0 
60 0 1 0 0 0 0 0 0 0 0 
61 0.0570101 0.807184 0.000149628 0.0626146 0.0151202 0.0578832 3.78901e-05 0 0 0 
62 0 1 0 0 0 0 0 0 0 0 
63 0 0.999999 0 0 0 0 0 0 0 0 
