1 1 18 100 1
2 2 18 100 1
3 3 18 100 1
0 4 18 100 0.000347822
4 4 18 100 0.999652
0 5 18 100 0.000350505
5 5 18 100 0.999649
6 6 18 100 1
7 7 18 100 1
8 8 18 100 1
9 9 18 100 1
0 10 18 100 0.000347822
10 10 18 100 0.999652
11 11 18 100 1
0 12 18 100 0.000350505
12 12 18 100 0.999649
13 13 18 100 1
14 14 18 100 1
0 15 18 100 0.000347822
15 15 18 100 0.999652
0 16 18 100 0.000350505
16 16 18 100 0.999649
17 17 18 100 1
18 18 18 100 1
1 1 19 100 1
2 2 19 100 1
3 3 19 100 1
0 4 19 100 0.000350519
4 4 19 100 0.999649
5 5 19 100 1
6 6 19 100 1
0 7 19 100 0.000353223
7 7 19 100 0.999647
8 8 19 100 1
9 9 19 100 1
0 10 19 100 0.000350519
10 10 19 100 0.999649
11 11 19 100 1
0 12 19 100 0.000350519
12 12 19 100 0.999649
13 13 19 100 1
0 14 19 100 0.000353223
14 14 19 100 0.999619
15 14 19 100 2.72889e-05
0 15 19 100 0.000353223
14 15 19 100 2.72889e-05
15 15 19 100 0.999619
16 16 19 100 1
17 17 19 100 1
18 18 19 100 1
19 19 19 100 1
1 1 24 100 1
2 2 24 100 1
3 3 24 100 1
4 4 24 100 1
0 5 24 100 8.40315e-05
5 5 24 100 0.999916
6 6 24 100 1
7 7 24 100 1
0 8 24 100 0.000262471
8 8 24 100 0.999738
9 9 24 100 1
10 10 24 100 1
0 11 24 100 8.45184e-05
11 11 24 100 0.999915
12 12 24 100 1
13 13 24 100 1
14 14 24 100 1
15 15 24 100 1
0 16 24 100 8.40323e-05
16 16 24 100 0.999916
17 17 24 100 1
0 18 24 100 0.000262465
18 18 24 100 0.999738
19 19 24 100 1
20 20 24 100 1
21 21 24 100 1
0 22 24 100 0.999958
5 22 24 100 2.12136e-05
16 22 24 100 2.12144e-05
0 23 24 100 0.996902
11 23 24 100 2.12281e-05
22 23 24 100 0.00307641
0 24 24 100 0.999955
8 24 24 100 2.40422e-05
18 24 24 100 2.09979e-05
21 25 24 100 1
0 26 24 100 0.0110928
22 26 24 100 0.988907
23 27 24 100 1
24 28 24 100 1
1 1 26 100 1
2 2 26 100 1
3 3 26 100 1
0 4 26 100 0.000365552
4 4 26 100 0.999634
5 5 26 100 1
6 6 26 100 1
7 7 26 100 1
8 8 26 100 1
0 9 26 100 0.000368371
9 9 26 100 0.999632
10 10 26 100 1
11 11 26 100 1
12 12 26 100 1
13 13 26 100 1
0 14 26 100 0.000365552
14 14 26 100 0.999634
15 15 26 100 1
0 16 26 100 0.000368371
16 16 26 100 0.999632
17 17 26 100 1
19 18 26 100 1
20 19 26 100 1
21 20 26 100 1
0 21 26 100 0.000365552
22 21 26 100 0.999634
23 22 26 100 1
0 23 26 100 0.000368371
24 23 26 100 0.999632
25 24 26 100 1
26 25 26 100 1
1 1 33 100 1
2 2 33 100 1
3 3 33 100 1
4 4 33 100 1
0 5 33 100 2.38707e-05
5 5 33 100 0.999976
6 6 33 100 1
7 7 33 100 1
8 8 33 100 1
9 9 33 100 1
10 10 33 100 1
0 11 33 100 1.86607e-05
11 11 33 100 0.999981
12 12 33 100 1
13 13 33 100 1
14 14 33 100 1
15 15 33 100 1
0 16 33 100 9.77127e-05
16 16 33 100 0.999902
17 17 33 100 1
0 18 33 100 0.999136
18 18 33 100 0.00031079
30 18 33 100 0.000552999
0 19 33 100 0.999986
16 19 33 100 1.42041e-05
0 20 33 100 0.993883
4 20 33 100 0.00611681
0 21 33 100 0.999934
5 21 33 100 6.55394e-05
17 22 33 100 1
0 23 33 100 1
17 24 33 100 1
0 25 33 100 4.32842e-05
9 25 33 100 0.000123452
18 25 33 100 0.999833
0 26 33 100 0.0414554
18 26 33 100 0.958545
0 27 33 100 1.88047e-05
19 27 33 100 0.999981
20 28 33 100 1
21 29 33 100 1
22 30 33 100 1
0 31 33 100 1.86607e-05
23 31 33 100 0.999981
24 32 33 100 1
25 33 33 100 1
26 34 33 100 1
0 35 33 100 1.86607e-05
27 35 33 100 0.999981
0 36 33 100 1.88047e-05
28 36 33 100 0.999981
0 37 33 100 0.000106112
29 37 33 100 0.999894
0 38 33 100 0.250447
30 38 33 100 0.749553
0 39 33 100 0.999975
29 39 33 100 2.4604e-05
0 40 33 100 0.738891
18 40 33 100 7.07916e-05
30 40 33 100 0.261038
0 41 33 100 0.00315362
31 41 33 100 0.996846
32 42 33 100 1
33 43 33 100 1
1 1 38 100 1
2 2 38 100 1
3 3 38 100 1
0 4 38 100 0.000110487
4 4 38 100 0.999889
5 5 38 100 1
6 6 38 100 1
0 7 38 100 0.00011134
7 7 38 100 0.999889
8 8 38 100 1
19 9 38 100 1
20 10 38 100 1
21 11 38 100 1
22 12 38 100 1
23 13 38 100 1
0 14 38 100 0.000110487
24 14 38 100 0.999889
25 15 38 100 0.99788
34 15 38 100 0.00211964
0 16 38 100 0.00011134
26 16 38 100 0.316988
32 16 38 100 0.316988
34 16 38 100 0.0464535
36 16 38 100 0.31946
37 17 38 100 1
34 18 38 100 1.32626e-05
38 18 38 100 0.999987
1 1 42 100 1
2 2 42 100 1
3 3 42 100 1
4 4 42 100 1
0 5 42 100 0.000122955
5 5 42 100 0.999877
6 6 42 100 1
7 7 42 100 1
8 8 42 100 1
9 9 42 100 1
0 10 42 100 0.000123904
10 10 42 100 0.999876
11 11 42 100 0.686711
32 11 42 100 0.142016
38 11 42 100 0.171273
32 12 42 100 0.142045
38 12 42 100 0.171289
42 12 42 100 0.686666
1 1 45 100 1
2 2 45 100 1
3 3 45 100 1
0 4 45 100 0.000407265
4 4 45 100 0.999593
5 5 45 100 1
6 6 45 100 1
0 7 45 100 0.00155835
7 7 45 100 0.998442
8 8 45 100 1
0 9 45 100 0.000359028
9 9 45 100 0.999641
0 10 45 100 0.00155835
10 10 45 100 0.998442
11 11 45 100 1
12 12 45 100 1
0 13 45 100 0.000410406
13 13 45 100 0.99959
14 14 45 100 1
15 15 45 100 1
0 16 45 100 0.000407265
16 16 45 100 0.999593
17 17 45 100 1
18 18 45 100 1
19 19 45 100 1
0 20 45 100 0.000410406
20 20 45 100 0.99959
21 21 45 100 1
22 22 45 100 1
23 23 45 100 1
24 24 45 100 1
0 25 45 100 0.000407265
25 25 45 100 0.999593
26 26 45 100 1
27 27 45 100 1
28 28 45 100 1
0 29 45 100 0.000407265
29 29 45 100 0.999593
30 30 45 100 1
0 31 45 100 0.000410406
31 31 45 100 0.999564
32 31 45 100 2.57229e-05
0 32 45 100 0.000410406
31 32 45 100 2.57229e-05
32 32 45 100 0.999564
33 33 45 100 1
34 34 45 100 1
35 35 45 100 1
36 36 45 100 1
37 37 45 100 1
38 38 45 100 1
39 39 45 100 1
0 40 45 100 0.000407265
40 40 45 100 0.999593
41 41 45 100 1
0 42 45 100 0.000410406
42 42 45 100 0.99959
43 43 45 100 1
44 44 45 100 0.999964
45 44 45 100 3.60817e-05
44 45 45 100 3.60817e-05
45 45 45 100 0.999964
1 1 49 100 1
2 2 49 100 1
0 3 49 100 7.97731e-05
3 3 49 100 0.99992
4 4 49 100 1
5 5 49 100 1
6 6 49 100 1
0 7 49 100 8.36891e-05
7 7 49 100 0.999916
0 8 49 100 8.43345e-05
8 8 49 100 0.999916
9 9 49 100 1
10 10 49 100 0.0678655
17 10 49 100 0.0678655
24 10 49 100 0.0888784
30 10 49 100 0.553825
46 10 49 100 0.221566
34 11 49 100 0.251191
38 11 49 100 0.0511408
47 11 49 100 0.697668
48 12 49 100 1
45 13 49 100 4.56942e-05
49 13 49 100 0.999954
1 1 51 100 1
2 2 51 100 1
3 3 51 100 1
4 4 51 100 1
0 5 51 100 0.000119913
5 5 51 100 0.99988
6 6 51 100 1
7 7 51 100 1
8 8 51 100 1
9 9 51 100 1
0 10 51 100 0.000120837
10 10 51 100 0.999879
11 11 51 100 1
12 12 51 100 1
13 13 51 100 1
14 14 51 100 1
15 15 51 100 1
16 16 51 100 1
17 17 51 100 1
18 18 51 100 1
0 19 51 100 0.000119913
19 19 51 100 0.99988
0 20 51 100 0.000120837
20 20 51 100 0.999879
21 21 51 100 1
22 22 51 100 1
23 23 51 100 1
24 24 51 100 1
0 25 51 100 0.000119913
25 25 51 100 0.59502
30 25 51 100 0.108113
31 25 51 100 0.296748
0 26 51 100 0.000120837
26 26 51 100 0.296748
30 26 51 100 0.000434004
35 26 51 100 0.702698
36 27 51 100 1
37 28 51 100 1
38 29 51 100 1
39 30 51 100 1
0 31 51 100 0.000119913
40 31 51 100 0.99988
41 32 51 100 1
0 33 51 100 0.000120837
42 33 51 100 0.999879
43 34 51 100 1
44 35 51 100 1
45 36 51 100 1
46 37 51 100 1
0 38 51 100 0.000119913
47 38 51 100 0.99988
48 39 51 100 1
0 40 51 100 0.000120837
49 40 51 100 0.999879
50 41 51 100 1
51 42 51 100 1
