5 0 100 12 0.498079
10 0 100 12 0.501921
1 1 100 12 1
2 2 100 12 1
3 3 100 12 1
4 4 100 12 1
5 5 100 12 1
6 6 100 12 1
7 7 100 12 1
8 8 100 12 1
9 9 100 12 1
10 10 100 12 1
11 11 100 12 1
12 12 100 12 1
11 13 100 12 1
5 15 100 12 0.999974
10 15 100 12 2.61585e-05
10 16 100 12 1
10 17 100 12 1
11 18 100 12 0.000338849
12 18 100 12 0.999661
5 21 100 12 1
10 22 100 12 1
10 23 100 12 1
12 24 100 12 1
5 27 100 12 1
10 28 100 12 1
12 30 100 12 1
11 32 100 12 0.499967
12 32 100 12 0.500033
5 33 100 12 1
10 34 100 12 1
12 36 100 12 1
9 38 100 12 0.917245
11 38 100 12 0.0413759
12 38 100 12 0.0413794
5 39 100 12 1
10 40 100 12 1
12 42 100 12 1
3 0 100 13 0.32193
7 0 100 13 0.337733
8 0 100 13 0.340337
1 1 100 13 1
2 2 100 13 1
3 3 100 13 1
4 4 100 13 1
5 5 100 13 1
6 6 100 13 1
7 7 100 13 1
8 8 100 13 1
9 9 100 13 1
10 10 100 13 1
3 11 100 13 1
4 12 100 13 1
5 13 100 13 1
11 14 100 13 1
5 17 100 13 5.12308e-05
9 17 100 13 0.00316946
10 17 100 13 0.996779
3 18 100 13 1
4 19 100 13 1
5 20 100 13 0.997034
9 20 100 13 7.38916e-05
10 20 100 13 0.00289203
7 21 100 13 0.999397
9 21 100 13 0.000603196
8 22 100 13 0.998558
9 22 100 13 0.00144173
9 23 100 13 0.00106479
12 23 100 13 0.998935
9 24 100 13 0.00191516
10 24 100 13 0.998085
7 25 100 13 0.999531
9 25 100 13 0.000469398
9 27 100 13 1
9 30 100 13 9.20803e-05
10 30 100 13 0.999908
9 31 100 13 0.00972681
13 31 100 13 0.990273
8 32 100 13 0.998531
9 32 100 13 0.00146857
9 33 100 13 1
9 34 100 13 1.79692e-05
11 34 100 13 0.999982
9 35 100 13 1
9 36 100 13 1
7 37 100 13 0.999258
9 37 100 13 0.000742082
11 38 100 13 1
9 39 100 13 1
6 40 100 13 0.999873
9 40 100 13 0.000127294
7 41 100 13 0.999098
9 41 100 13 0.000902067
8 42 100 13 0.997578
9 42 100 13 0.00242209
8 43 100 13 0.995151
9 43 100 13 0.0048491
9 44 100 13 0.00612693
12 44 100 13 0.993873
9 45 100 13 0.133766
13 45 100 13 0.866234
9 46 100 13 2.05507e-05
10 46 100 13 0.999975
11 46 100 13 4.44885e-06
9 47 100 13 8.69951e-06
11 47 100 13 0.999988
12 47 100 13 3.75485e-06
9 48 100 13 1.9411e-05
11 48 100 13 2.33491e-06
12 48 100 13 0.999978
9 49 100 13 0.000188245
11 49 100 13 4.02814e-06
12 49 100 13 6.21348e-05
13 49 100 13 0.999746
4 0 100 18 0.180534
5 0 100 18 0.138068
7 0 100 18 0.043858
10 0 100 18 0.137011
12 0 100 18 0.138068
14 0 100 18 0.0435223
15 0 100 18 0.137011
16 0 100 18 0.181926
1 1 100 18 1
2 2 100 18 1
3 3 100 18 1
4 4 100 18 1
5 5 100 18 1
6 6 100 18 1
7 7 100 18 1
8 8 100 18 1
9 9 100 18 1
10 10 100 18 1
11 11 100 18 1
12 12 100 18 1
13 13 100 18 1
14 14 100 18 1
15 15 100 18 1
16 16 100 18 1
17 17 100 18 1
18 18 100 18 1
9 19 100 18 1
8 20 100 18 6.02189e-05
10 20 100 18 0.999804
12 20 100 18 0.000135372
9 21 100 18 5.34481e-05
11 21 100 18 0.999944
13 21 100 18 2.76199e-06
8 22 100 18 2.05365e-05
10 22 100 18 7.24007e-05
12 22 100 18 0.999907
9 23 100 18 7.76283e-06
11 23 100 18 2.7037e-06
13 23 100 18 0.99999
4 24 100 18 6.55752e-06
8 24 100 18 1.88948e-05
14 24 100 18 0.999964
15 24 100 18 5.63352e-06
16 24 100 18 4.81431e-06
6 25 100 18 6.324e-06
8 25 100 18 2.15946e-06
14 25 100 18 4.71606e-06
15 25 100 18 0.999977
16 25 100 18 9.00595e-06
17 25 100 18 1.18355e-06
7 26 100 18 9.6659e-06
8 26 100 18 5.39737e-05
14 26 100 18 5.92215e-06
15 26 100 18 1.11285e-05
16 26 100 18 0.999904
17 26 100 18 1.52981e-05
8 27 100 18 2.80024e-05
15 27 100 18 2.25439e-06
16 27 100 18 4.215e-05
17 27 100 18 0.999928
8 28 100 18 0.000334707
18 28 100 18 0.999665
8 29 100 18 0.000243515
10 29 100 18 0.410932
12 29 100 18 0.588825
8 30 100 18 0.729969
14 30 100 18 0.104971
16 30 100 18 0.165059
4 31 100 18 0.256993
8 31 100 18 0.00026185
14 31 100 18 0.742724
16 31 100 18 2.04154e-05
7 32 100 18 0.0787106
8 32 100 18 0.000167023
16 32 100 18 0.921122
8 33 100 18 0.000215594
10 33 100 18 0.420899
12 33 100 18 0.578886
8 34 100 18 0.00428463
9 34 100 18 0.430565
13 34 100 18 0.0859917
15 34 100 18 0.0539579
16 34 100 18 0.425113
18 34 100 18 8.7749e-05
4 35 100 18 0.304187
8 35 100 18 0.000210044
14 35 100 18 0.695603
7 36 100 18 0.0851801
8 36 100 18 0.000161601
16 36 100 18 0.914658
8 37 100 18 4.38293e-05
16 37 100 18 3.54261e-06
17 37 100 18 0.999953
8 38 100 18 1.9711e-05
16 38 100 18 1.67497e-06
17 38 100 18 3.11177e-06
18 38 100 18 0.999975
4 0 100 19 0.166026
7 0 100 19 0.167307
10 0 100 19 0.166026
12 0 100 19 0.166026
14 0 100 19 0.167307
15 0 100 19 0.167307
1 1 100 19 1
2 2 100 19 1
3 3 100 19 1
4 4 100 19 1
5 5 100 19 1
6 6 100 19 1
7 7 100 19 1
8 8 100 19 1
9 9 100 19 1
10 10 100 19 1
11 11 100 19 1
12 12 100 19 1
13 13 100 19 1
14 14 100 19 0.999973
15 14 100 19 2.72985e-05
14 15 100 19 2.72985e-05
15 15 100 19 0.999973
16 16 100 19 1
17 17 100 19 1
18 18 100 19 1
19 19 100 19 1
4 0 100 25 0.166026
9 0 100 25 0.167307
14 0 100 25 0.166026
16 0 100 25 0.167307
21 0 100 25 0.166026
23 0 100 25 0.167307
1 1 100 25 1
2 2 100 25 1
3 3 100 25 1
4 4 100 25 1
5 5 100 25 1
6 6 100 25 1
7 7 100 25 1
8 8 100 25 1
9 9 100 25 1
10 10 100 25 1
11 11 100 25 1
12 12 100 25 1
13 13 100 25 1
14 14 100 25 1
15 15 100 25 1
16 16 100 25 1
17 17 100 25 1
17 18 100 25 1
18 19 100 25 1
19 20 100 25 1
20 21 100 25 1
21 22 100 25 1
22 23 100 25 1
23 24 100 25 1
24 25 100 25 1
25 26 100 25 1
5 0 100 28 2.79297e-05
8 0 100 28 8.72377e-05
11 0 100 28 2.80915e-05
16 0 100 28 2.79299e-05
18 0 100 28 8.72359e-05
22 0 100 28 0.332357
23 0 100 28 0.331342
24 0 100 28 0.332356
26 0 100 28 0.00368691
1 1 100 28 1
2 2 100 28 1
3 3 100 28 1
4 4 100 28 1
5 5 100 28 0.999979
22 5 100 28 2.12149e-05
6 6 100 28 1
7 7 100 28 1
8 8 100 28 0.999976
24 8 100 28 2.40479e-05
9 9 100 28 1
10 10 100 28 1
11 11 100 28 0.999979
23 11 100 28 2.12294e-05
12 12 100 28 1
13 13 100 28 1
14 14 100 28 1
15 15 100 28 1
16 16 100 28 0.999979
22 16 100 28 2.12157e-05
17 17 100 28 1
18 18 100 28 0.999979
24 18 100 28 2.10029e-05
19 19 100 28 1
20 20 100 28 1
21 21 100 28 0.5
25 21 100 28 0.5
23 22 100 28 0.00310127
26 22 100 28 0.996899
27 23 100 28 1
28 24 100 28 1
5 0 100 42 0.0996158
10 0 100 42 0.100384
19 0 100 42 0.0996158
20 0 100 42 0.100384
25 0 100 42 0.0996158
26 0 100 42 0.100384
31 0 100 42 0.0996158
33 0 100 42 0.100384
38 0 100 42 0.0996158
40 0 100 42 0.100384
1 1 100 42 1
2 2 100 42 1
3 3 100 42 1
4 4 100 42 1
5 5 100 42 1
6 6 100 42 1
7 7 100 42 1
8 8 100 42 1
9 9 100 42 1
10 10 100 42 1
11 11 100 42 1
12 12 100 42 1
13 13 100 42 1
14 14 100 42 1
15 15 100 42 1
16 16 100 42 1
17 17 100 42 1
18 18 100 42 1
19 19 100 42 1
20 20 100 42 1
21 21 100 42 1
22 22 100 42 1
23 23 100 42 1
24 24 100 42 1
25 25 100 42 1
26 26 100 42 1
21 27 100 42 0.42411
27 27 100 42 0.298041
34 27 100 42 0.159308
41 27 100 42 0.118542
15 28 100 42 0.210487
22 28 100 42 0.380905
28 28 100 42 0.26684
35 28 100 42 0.141768
23 29 100 42 0.483743
29 29 100 42 0.33788
36 29 100 42 0.178376
25 30 100 42 0.996002
26 30 100 42 0.00399831
25 31 100 42 1
15 32 100 42 0.13225
22 32 100 42 0.29577
28 32 100 42 0.372159
35 32 100 42 0.199822
23 33 100 42 0.341892
29 33 100 42 0.429072
36 33 100 42 0.229035
42 34 100 42 1
26 35 100 42 1
27 36 100 42 1
28 37 100 42 1
29 38 100 42 1
30 39 100 42 1
31 40 100 42 1
32 41 100 42 1
33 42 100 42 1
34 43 100 42 1
15 44 100 42 1.5229e-06
22 44 100 42 1.65883e-06
25 44 100 42 5.63132e-06
26 44 100 42 1.11161e-05
28 44 100 42 5.00708e-06
33 44 100 42 1.22972e-06
34 44 100 42 1.26881e-06
35 44 100 42 0.999973
23 45 100 42 1.6707e-06
25 45 100 42 2.93187e-06
26 45 100 42 3.75979e-06
29 45 100 42 5.0411e-06
35 45 100 42 1.18272e-06
36 45 100 42 0.999985
37 46 100 42 1
5 47 100 42 1.33188e-06
19 47 100 42 1.44486e-06
25 47 100 42 0.000213237
26 47 100 42 1.2386e-05
31 47 100 42 4.95688e-06
38 47 100 42 0.999765
40 47 100 42 1.58001e-06
39 48 100 42 1
10 49 100 42 1.43e-06
20 49 100 42 1.51011e-06
25 49 100 42 9.98125e-06
26 49 100 42 0.000176101
33 49 100 42 4.93602e-06
38 49 100 42 1.43448e-06
40 49 100 42 0.999801
41 49 100 42 3.6194e-06
21 50 100 42 1.50762e-06
25 50 100 42 4.14162e-06
26 50 100 42 2.17967e-05
27 50 100 42 2.01932e-06
34 50 100 42 5.0403e-06
40 50 100 42 9.23675e-06
41 50 100 42 0.999956
25 51 100 42 5.17084e-06
26 51 100 42 1.78676e-05
34 51 100 42 1.29782e-06
40 51 100 42 1.23547e-05
41 51 100 42 3.66904e-05
42 51 100 42 0.999927
5 0 100 43 3.39689e-06
11 0 100 43 2.6555e-06
16 0 100 43 1.39049e-05
18 0 100 43 0.142181
19 0 100 43 0.142301
20 0 100 43 0.141434
21 0 100 43 0.142295
23 0 100 43 0.142302
25 0 100 43 6.15947e-06
26 0 100 43 0.00589928
27 0 100 43 2.67598e-06
31 0 100 43 2.6555e-06
35 0 100 43 2.6555e-06
36 0 100 43 2.67598e-06
37 0 100 43 1.51001e-05
38 0 100 43 0.0356396
39 0 100 43 0.1423
40 0 100 43 0.105147
41 0 100 43 0.000448773
1 1 100 43 1
2 2 100 43 1
3 3 100 43 1
4 4 100 43 0.99392
20 4 100 43 0.00607963
5 5 100 43 0.999934
21 5 100 43 6.55367e-05
6 6 100 43 1
7 7 100 43 1
8 8 100 43 1
9 9 100 43 0.999876
25 9 100 43 0.000123436
10 10 100 43 1
11 11 100 43 1
12 12 100 43 1
13 13 100 43 1
14 14 100 43 1
15 15 100 43 1
16 16 100 43 0.999986
19 16 100 43 1.42052e-05
17 17 100 43 0.333333
22 17 100 43 0.333333
24 17 100 43 0.333333
18 18 100 43 0.000158668
25 18 100 43 0.51044
26 18 100 43 0.489365
40 18 100 43 3.61412e-05
27 19 100 43 1
28 20 100 43 1
29 21 100 43 1
30 22 100 43 1
31 23 100 43 1
32 24 100 43 1
33 25 100 43 1
34 26 100 43 1
35 27 100 43 1
36 28 100 43 1
37 29 100 43 0.999975
39 29 100 43 2.46058e-05
18 30 100 43 0.000546905
38 30 100 43 0.741292
40 30 100 43 0.258161
41 31 100 43 1
42 32 100 43 1
43 33 100 43 1
4 0 100 45 0.053842
7 0 100 45 0.20602
9 0 100 45 0.0474649
10 0 100 45 0.20602
13 0 100 45 0.0542572
16 0 100 45 0.053842
20 0 100 45 0.0542572
25 0 100 45 0.053842
29 0 100 45 0.053842
31 0 100 45 0.0542572
32 0 100 45 0.0542572
40 0 100 45 0.053842
42 0 100 45 0.0542572
1 1 100 45 1
2 2 100 45 1
3 3 100 45 1
4 4 100 45 1
5 5 100 45 1
6 6 100 45 1
7 7 100 45 1
8 8 100 45 1
9 9 100 45 1
10 10 100 45 1
11 11 100 45 1
12 12 100 45 1
13 13 100 45 1
14 14 100 45 1
15 15 100 45 1
16 16 100 45 1
17 17 100 45 1
18 18 100 45 1
19 19 100 45 1
20 20 100 45 1
21 21 100 45 1
22 22 100 45 1
23 23 100 45 1
24 24 100 45 1
25 25 100 45 1
26 26 100 45 1
27 27 100 45 1
28 28 100 45 1
29 29 100 45 1
30 30 100 45 1
31 31 100 45 0.999974
32 31 100 45 2.57334e-05
31 32 100 45 2.57334e-05
32 32 100 45 0.999974
33 33 100 45 1
34 34 100 45 1
35 35 100 45 1
36 36 100 45 1
37 37 100 45 1
38 38 100 45 1
39 39 100 45 1
40 40 100 45 1
41 41 100 45 1
42 42 100 45 1
43 43 100 45 1
44 44 100 45 0.999964
45 44 100 45 3.60817e-05
44 45 100 45 3.60817e-05
45 45 100 45 0.999964
