2 0.2953 0.7047 0 0 0 0 0 0 0 0 
3 0 0.999999 0 0 0 0 0 0 0 0 
4 0.324785 0.675212 2.5892e-06 0 0 0 0 0 0 0 
5 0.240265 0.706387 0.0533483 0 0 0 0 0 0 0 
6 0.320077 0.67992 3.47913e-06 0 0 0 0 0 0 0 
7 0.261304 0.738696 0 0 0 0 0 0 0 0 
8 0.32264 0.677359 1.10604e-06 0 0 0 0 0 0 0 
9 0.322168 0.677829 2.09717e-06 0 0 0 0 0 0 0 
10 0.277904 0.722095 1.5157e-06 0 0 0 0 0 0 0 
11 0.630838 0.369161 0 0 0 0 0 0 0 0 
12 0.144283 0.839981 0.0157346 5.59903e-07 0 0 0 0 0 0 
13 0.319474 0.680524 1.76832e-06 0 0 0 0 0 0 0 
14 0.558681 0.441318 0 0 0 0 0 0 0 0 
15 0.338037 0.661962 1.31134e-06 0 0 0 0 0 0 0 
16 0.565908 0.434091 0 0 0 0 0 0 0 0 
17 0.239684 0.703691 0.0566246 0 0 0 0 0 0 0 
18 0.358793 0.641206 1.22852e-06 0 0 0 0 0 0 0 
19 0.239684 0.703783 0.0565333 0 0 0 0 0 0 0 
20 0.147244 0.819529 0.0332253 1.16555e-06 0 0 0 0 0 0 
21 0.315869 0.684129 1.79553e-06 0 0 0 0 0 0 0 
22 0.396842 0.603158 0 0 0 0 0 0 0 0 
23 0.295393 0.704607 0 0 0 0 0 0 0 0 
24 0.277905 0.722093 2.18683e-06 0 0 0 0 0 0 0 
25 0.343166 0.656834 0 0 0 0 0 0 0 0 
26 0.231674 0.710053 0.0582728 0 0 0 0 0 0 0 
27 0.231674 0.710053 0.0582728 0 0 0 0 0 0 0 
28 0.282944 0.717054 1.75395e-06 0 0 0 0 0 0 0 
29 0 0.857143 0 0.142857 0 0 0 0 0 0 
30 0 0.999999 0 0 0 0 0 0 0 0 
31 0.321744 0.678256 0 0 0 0 0 0 0 0 
32 0.119359 0.861309 0.0193311 6.87881e-07 0 0 0 0 0 0 
33 0.126593 0.852904 0.0205027 7.29571e-07 0 0 0 0 0 0 
34 0.304323 0.695676 1.76832e-06 0 0 0 0 0 0 0 
35 0.304323 0.695676 1.76832e-06 0 0 0 0 0 0 0 
36 0.12854 0.850641 0.0208181 7.40795e-07 0 0 0 0 0 0 
37 0.331644 0.668356 0 0 0 0 0 0 0 0 
38 0.611862 0.388137 0 0 0 0 0 0 0 0 
39 0.565606 0.434393 0 0 0 0 0 0 0 0 
40 0.12854 0.850641 0.0208181 7.40795e-07 0 0 0 0 0 0 
41 0.12854 0.850641 0.0208181 7.40795e-07 0 0 0 0 0 0 
42 0.270592 0.729408 0 0 0 0 0 0 0 0 
43 0.551891 0.448108 0 0 0 0 0 0 0 0 
44 0.12854 0.850641 0.0208181 7.40795e-07 0 0 0 0 0 0 
45 0.126593 0.852904 0.0205027 7.29571e-07 0 0 0 0 0 0 
46 0 0.999999 0 0 0 0 0 0 0 0 
47 0 0.999999 0 0 0 0 0 0 0 0 
48 0.304323 0.695676 1.76832e-06 0 0 0 0 0 0 0 
49 0.292046 0.707954 0 0 0 0 0 0 0 0 
50 0.12854 0.850641 0.0208181 7.40795e-07 0 0 0 0 0 0 
51 0.231674 0.710053 0.0582728 0 0 0 0 0 0 0 
52 0 0.999999 0 0 0 0 0 0 0 0 
53 0.124703 0.855099 0.0201967 7.18682e-07 0 0 0 0 0 0 
54 0.331644 0.668356 0 0 0 0 0 0 0 0 
55 0.331644 0.668356 0 0 0 0 0 0 0 0 
56 0.295855 0.704145 0 0 0 0 0 0 0 0 
57 0 0.999999 0 0 0 0 0 0 0 0 
58 0.270592 0.729408 0 0 0 0 0 0 0 0 
59 0.231674 0.694668 0.0736574 0 0 0 0 0 0 0 
60 0.274755 0.725245 0 0 0 0 0 0 0 0 
61 0.270592 0.729408 0 0 0 0 0 0 0 0 
62 0.274755 0.725245 0 0 0 0 0 0 0 0 
63 0.309005 0.690994 1.79553e-06 0 0 0 0 0 0 0 
64 0.28487 0.71513 0 0 0 0 0 0 0 0 
