0 4 0.0994865
0 6 4.30599e-06
0 8 0.100123
0 9 0.101231
0 20 0.398302
0 22 0.124348
0 23 0.0988742
0 24 0.077631
2 2 1
3 3 1
4 4 1
5 5 1
6 6 0.66668
6 63 0.33332
7 7 1
8 8 1
9 9 1
10 10 1
11 11 1
12 12 1
13 34 1
14 35 1
15 13 1
16 11 1
17 16 0.996951
17 23 0.00304908
18 15 1
19 17 1
20 6 0.199141
20 12 0.209362
20 22 0.34857
20 24 0.242926
21 11 1
22 46 0.75
22 59 0.25
23 36 1
24 14 1
25 11 1
26 18 1
27 19 1
28 15 0.142933
28 20 0.857067
29 21 1
30 25 1
31 26 1
32 27 1
33 28 1
34 29 1
35 30 1
36 31 1
37 32 1
38 33 1
39 8 0.996002
39 9 0.00399831
40 37 1
41 38 1
42 39 1
43 40 1
44 41 1
45 42 1
46 43 1
47 44 1
48 45 1
49 47 1
50 48 1
51 49 1
52 50 1
53 51 1
54 52 1
55 53 1
56 9 0.139648
56 10 0.426927
56 12 0.00637203
56 14 0.427053
57 54 1
58 55 1
59 56 0.5
59 57 0.5
60 58 1
61 27 0.5
61 62 0.5
62 60 1
63 61 1
64 10 0.499977
64 14 0.500023
